{
  "feature_names": [
    "edge_p",
    "di_align",
    "rsi_room",
    "book_align",
    "atr_ratio",
    "adx_norm",
    "spread_bps",
    "rel_volume",
    "depth_align",
    "flow_align",
    "ofi_align",
    "mvwap_align",
    "micro_gap_align",
    "htf_1h_align",
    "htf_4h_align",
    "rsi_1h_room",
    "day_range_pos",
    "trend_1d_align",
    "macro_align",
    "dist_30d_high",
    "vol_pct_1d"
  ],
  "weights": [
    0.044946334628991495,
    -0.20332302566253377,
    -0.07763281352666784,
    0.1225034677808132,
    0.0660939811658878,
    0.08627470198092345,
    -0.19730942397852994,
    -0.07323163000360966,
    -0.0366649629796776,
    -0.13491159531737493,
    0.17794988011066432,
    -0.21665973028656657,
    -0.046002044617358184,
    0.13584393400812828,
    -0.35257858556572497,
    0.20433393087664087,
    -0.1708512791050233,
    0.0,
    0.0,
    0.014313406034099228,
    0.0
  ],
  "bias": -0.3285202041631081,
  "feature_mean": [
    0.7159817351598169,
    -0.05317261884093535,
    0.25392523300492414,
    -0.004030675891894239,
    0.16349628472644834,
    0.2654188940797101,
    4.270263002902641,
    2.955380715556478,
    -0.023161185202913923,
    0.029441689497716892,
    -76.38342427853884,
    -0.008328981735159812,
    0.06733651201434666,
    -0.1780821917808219,
    -0.1415525114155251,
    0.20352612958904095,
    0.5799843424657538,
    0.0,
    0.0,
    -0.06032599999999999,
    0.5
  ],
  "feature_std": [
    0.1334219175717258,
    0.24790982226898806,
    0.12340977401079493,
    0.1653931089841005,
    0.6555769588393053,
    0.110687269065783,
    2.588447506904014,
    12.210119837673348,
    0.3086893830997391,
    0.43314033214617953,
    1141.2163930870145,
    0.09888421901954167,
    0.9784321776081799,
    0.6893011301594039,
    0.6977192856589614,
    0.0359430125745661,
    0.1625162112864748,
    1.0,
    1.0,
    0.07184801256546555,
    1.0
  ],
  "n_samples": 274,
  "trained_at": "2026-06-14T06:26:04.019254+00:00"
}